{
  "input_nodes": 5,
  "hidden_nodes": 8,
  "output_nodes": 2,
  "weights_ih": {
    "rows": 8,
    "cols": 5,
    "data": [
      [
        -5.459085448708905,
        -3.7385853485271223,
        -7.554884302245679,
        6.74354820163017,
        -1.411335839632472
      ],
      [
        3.685249607044983,
        -4.896924246124495,
        0.9379674490384949,
        2.6751456667114035,
        0.11580428480309518
      ],
      [
        -4.024333479159895,
        11.31361809581547,
        -4.437112893487841,
        -6.872710554567875,
        -5.061740619750874
      ],
      [
        0.2669634454413087,
        0.7581029979060275,
        -0.8425554550938216,
        10.097264450369533,
        -2.480155512019134
      ],
      [
        -11.591012786865441,
        -2.573555648084396,
        9.434625952011812,
        -10.181756100985211,
        -7.69661982684545
      ],
      [
        10.258542371994313,
        -3.851570793474481,
        2.630244537452321,
        -0.6627797294848046,
        -10.067164491667988
      ],
      [
        -6.101475352688646,
        -9.44642127372544,
        2.8783369383056314,
        4.907716765761622,
        3.460693203845672
      ],
      [
        4.235072971128482,
        -2.6113828573972953,
        2.1547759473362587,
        -4.545795990155097,
        -14.349546541691833
      ]
    ]
  },
  "weights_ho": {
    "rows": 2,
    "cols": 8,
    "data": [
      [
        3.3409492545886006,
        6.957385212117232,
        1.3588108399562828,
        2.5800243035401014,
        1.348377171542777,
        6.555884868484047,
        -8.02340898672991,
        3.2025475901628844
      ],
      [
        -5.044636807382637,
        4.7057769530786615,
        -6.24546654864593,
        -3.0926956363214284,
        -11.498394984353972,
        7.455004280999934,
        3.8807782779135995,
        -8.2021991987144
      ]
    ]
  },
  "bias_h": {
    "rows": 8,
    "cols": 1,
    "data": [
      [
        -17.16434619655323
      ],
      [
        3.320567104150612
      ],
      [
        -6.426341705362644
      ],
      [
        -2.3056392938045156
      ],
      [
        6.87631217025065
      ],
      [
        -2.0806930172056255
      ],
      [
        -7.498843913043592
      ],
      [
        11.367691113412587
      ]
    ]
  },
  "bias_o": {
    "rows": 2,
    "cols": 1,
    "data": [
      [
        -2.59527328451448
      ],
      [
        6.171348156051648
      ]
    ]
  },
  "learning_rate": 0.1,
  "activation_function": {}
}
