{
  "input_nodes": 5,
  "hidden_nodes": 8,
  "output_nodes": 2,
  "weights_ih": {
    "rows": 8,
    "cols": 5,
    "data": [
      [
        3.3540407833780788,
        3.6241591984030723,
        -3.686980925976074,
        -0.7578874756269914,
        -27.71979447599904
      ],
      [
        -8.249002840309485,
        -4.817500125312884,
        -5.586968424785038,
        8.07392146824721,
        3.3111023209728723
      ],
      [
        -31.544927123484293,
        6.340499388725025,
        4.57005022543187,
        -11.841609031708984,
        -3.9614487604470097
      ],
      [
        13.306693061175071,
        14.733941567702718,
        30.626506812308495,
        14.425479061886639,
        12.438606095786469
      ],
      [
        13.267313361993455,
        11.695221259000874,
        -4.708597717633223,
        -16.114441520239787,
        24.893724926870025
      ],
      [
        -15.401453620715873,
        16.542186622336242,
        -5.189635081965118,
        3.860464019465546,
        20.64806045963337
      ],
      [
        -25.86448377804916,
        -14.391077964340449,
        5.624831763886306,
        7.393386957495189,
        -7.372005419321925
      ],
      [
        16.243961669300134,
        13.560234328620167,
        -21.89229446771399,
        -8.867475916993202,
        25.930669695556347
      ]
    ]
  },
  "weights_ho": {
    "rows": 2,
    "cols": 8,
    "data": [
      [
        12.376371503393697,
        5.654311712817338,
        5.8248383349084465,
        10.052922810129978,
        -5.625703786272823,
        1.982729735115833,
        -22.82606141087484,
        11.183765396379455
      ],
      [
        -18.728374598879654,
        4.183034219447658,
        -19.355273438742024,
        10.974923432668149,
        -14.849510734682163,
        18.091007613080258,
        6.087552062298953,
        3.6189022222786056
      ]
    ]
  },
  "bias_h": {
    "rows": 8,
    "cols": 1,
    "data": [
      [
        21.950971459648734
      ],
      [
        8.16468363446413
      ],
      [
        5.3085429653949525
      ],
      [
        -16.744452507508793
      ],
      [
        7.635877054875073
      ],
      [
        -2.967907487627052
      ],
      [
        4.296516606666001
      ],
      [
        14.448629086477485
      ]
    ]
  },
  "bias_o": {
    "rows": 2,
    "cols": 1,
    "data": [
      [
        6.035076998437118
      ],
      [
        8.334039530574321
      ]
    ]
  },
  "learning_rate": 0.1,
  "activation_function": {}
}
